FANN_FLO_2.1
num_layers=3
learning_rate=0.700000
connection_rate=1.000000
network_type=0
learning_momentum=0.000000
training_algorithm=2
train_error_function=1
train_stop_function=0
cascade_output_change_fraction=0.010000
quickprop_decay=-0.000100
quickprop_mu=1.750000
rprop_increase_factor=1.200000
rprop_decrease_factor=0.500000
rprop_delta_min=0.000000
rprop_delta_max=50.000000
rprop_delta_zero=0.100000
cascade_output_stagnation_epochs=12
cascade_candidate_change_fraction=0.010000
cascade_candidate_stagnation_epochs=12
cascade_max_out_epochs=150
cascade_min_out_epochs=50
cascade_max_cand_epochs=150
cascade_min_cand_epochs=50
cascade_num_candidate_groups=2
bit_fail_limit=3.49999994039535522461e-01
cascade_candidate_limit=1.00000000000000000000e+03
cascade_weight_multiplier=4.00000005960464477539e-01
cascade_activation_functions_count=10
cascade_activation_functions=3 5 7 8 10 11 14 15 16 17 
cascade_activation_steepnesses_count=4
cascade_activation_steepnesses=2.50000000000000000000e-01 5.00000000000000000000e-01 7.50000000000000000000e-01 1.00000000000000000000e+00 
layer_sizes=257 4 4 
scale_included=0
neurons (num_inputs, activation_function, activation_steepness)=(0, 0, 0.00000000000000000000e+00) (0, 0, 0.00000000000000000000e+00) (0, 0, 0.00000000000000000000e+00) (0, 0, 0.00000000000000000000e+00) (0, 0, 0.00000000000000000000e+00) (0, 0, 0.00000000000000000000e+00) (0, 0, 0.00000000000000000000e+00) (0, 0, 0.00000000000000000000e+00) (0, 0, 0.00000000000000000000e+00) (0, 0, 0.00000000000000000000e+00) (0, 0, 0.00000000000000000000e+00) (0, 0, 0.00000000000000000000e+00) (0, 0, 0.00000000000000000000e+00) (0, 0, 0.00000000000000000000e+00) (0, 0, 0.00000000000000000000e+00) (0, 0, 0.00000000000000000000e+00) (0, 0, 0.00000000000000000000e+00) (0, 0, 0.00000000000000000000e+00) (0, 0, 0.00000000000000000000e+00) (0, 0, 0.00000000000000000000e+00) (0, 0, 0.00000000000000000000e+00) (0, 0, 0.00000000000000000000e+00) (0, 0, 0.00000000000000000000e+00) (0, 0, 0.00000000000000000000e+00) (0, 0, 0.00000000000000000000e+00) (0, 0, 0.00000000000000000000e+00) (0, 0, 0.00000000000000000000e+00) (0, 0, 0.00000000000000000000e+00) (0, 0, 0.00000000000000000000e+00) (0, 0, 0.00000000000000000000e+00) (0, 0, 0.00000000000000000000e+00) (0, 0, 0.00000000000000000000e+00) (0, 0, 0.00000000000000000000e+00) (0, 0, 0.00000000000000000000e+00) (0, 0, 0.00000000000000000000e+00) (0, 0, 0.00000000000000000000e+00) (0, 0, 0.00000000000000000000e+00) (0, 0, 0.00000000000000000000e+00) (0, 0, 0.00000000000000000000e+00) (0, 0, 0.00000000000000000000e+00) (0, 0, 0.00000000000000000000e+00) (0, 0, 0.00000000000000000000e+00) (0, 0, 0.00000000000000000000e+00) (0, 0, 0.00000000000000000000e+00) (0, 0, 0.00000000000000000000e+00) (0, 0, 0.00000000000000000000e+00) (0, 0, 0.00000000000000000000e+00) (0, 0, 0.00000000000000000000e+00) (0, 0, 0.00000000000000000000e+00) (0, 0, 0.00000000000000000000e+00) (0, 0, 0.00000000000000000000e+00) (0, 0, 0.00000000000000000000e+00) (0, 0, 0.00000000000000000000e+00) (0, 0, 0.00000000000000000000e+00) (0, 0, 0.00000000000000000000e+00) (0, 0, 0.00000000000000000000e+00) (0, 0, 0.00000000000000000000e+00) (0, 0, 0.00000000000000000000e+00) (0, 0, 0.00000000000000000000e+00) (0, 0, 0.00000000000000000000e+00) (0, 0, 0.00000000000000000000e+00) (0, 0, 0.00000000000000000000e+00) (0, 0, 0.00000000000000000000e+00) (0, 0, 0.00000000000000000000e+00) (0, 0, 0.00000000000000000000e+00) (0, 0, 0.00000000000000000000e+00) (0, 0, 0.00000000000000000000e+00) (0, 0, 0.00000000000000000000e+00) (0, 0, 0.00000000000000000000e+00) (0, 0, 0.00000000000000000000e+00) (0, 0, 0.00000000000000000000e+00) (0, 0, 0.00000000000000000000e+00) (0, 0, 0.00000000000000000000e+00) (0, 0, 0.00000000000000000000e+00) (0, 0, 0.00000000000000000000e+00) (0, 0, 0.00000000000000000000e+00) (0, 0, 0.00000000000000000000e+00) (0, 0, 0.00000000000000000000e+00) (0, 0, 0.00000000000000000000e+00) (0, 0, 0.00000000000000000000e+00) (0, 0, 0.00000000000000000000e+00) (0, 0, 0.00000000000000000000e+00) (0, 0, 0.00000000000000000000e+00) (0, 0, 0.00000000000000000000e+00) (0, 0, 0.00000000000000000000e+00) (0, 0, 0.00000000000000000000e+00) (0, 0, 0.00000000000000000000e+00) (0, 0, 0.00000000000000000000e+00) (0, 0, 0.00000000000000000000e+00) (0, 0, 0.00000000000000000000e+00) (0, 0, 0.00000000000000000000e+00) (0, 0, 0.00000000000000000000e+00) (0, 0, 0.00000000000000000000e+00) (0, 0, 0.00000000000000000000e+00) (0, 0, 0.00000000000000000000e+00) (0, 0, 0.00000000000000000000e+00) (0, 0, 0.00000000000000000000e+00) (0, 0, 0.00000000000000000000e+00) (0, 0, 0.00000000000000000000e+00) (0, 0, 0.00000000000000000000e+00) (0, 0, 0.00000000000000000000e+00) (0, 0, 0.00000000000000000000e+00) (0, 0, 0.00000000000000000000e+00) (0, 0, 0.00000000000000000000e+00) (0, 0, 0.00000000000000000000e+00) (0, 0, 0.00000000000000000000e+00) (0, 0, 0.00000000000000000000e+00) (0, 0, 0.00000000000000000000e+00) (0, 0, 0.00000000000000000000e+00) (0, 0, 0.00000000000000000000e+00) (0, 0, 0.00000000000000000000e+00) (0, 0, 0.00000000000000000000e+00) (0, 0, 0.00000000000000000000e+00) (0, 0, 0.00000000000000000000e+00) (0, 0, 0.00000000000000000000e+00) (0, 0, 0.00000000000000000000e+00) (0, 0, 0.00000000000000000000e+00) (0, 0, 0.00000000000000000000e+00) (0, 0, 0.00000000000000000000e+00) (0, 0, 0.00000000000000000000e+00) (0, 0, 0.00000000000000000000e+00) (0, 0, 0.00000000000000000000e+00) (0, 0, 0.00000000000000000000e+00) (0, 0, 0.00000000000000000000e+00) (0, 0, 0.00000000000000000000e+00) (0, 0, 0.00000000000000000000e+00) (0, 0, 0.00000000000000000000e+00) (0, 0, 0.00000000000000000000e+00) (0, 0, 0.00000000000000000000e+00) (0, 0, 0.00000000000000000000e+00) (0, 0, 0.00000000000000000000e+00) (0, 0, 0.00000000000000000000e+00) (0, 0, 0.00000000000000000000e+00) (0, 0, 0.00000000000000000000e+00) (0, 0, 0.00000000000000000000e+00) (0, 0, 0.00000000000000000000e+00) (0, 0, 0.00000000000000000000e+00) (0, 0, 0.00000000000000000000e+00) (0, 0, 0.00000000000000000000e+00) (0, 0, 0.00000000000000000000e+00) (0, 0, 0.00000000000000000000e+00) (0, 0, 0.00000000000000000000e+00) (0, 0, 0.00000000000000000000e+00) (0, 0, 0.00000000000000000000e+00) (0, 0, 0.00000000000000000000e+00) (0, 0, 0.00000000000000000000e+00) (0, 0, 0.00000000000000000000e+00) (0, 0, 0.00000000000000000000e+00) (0, 0, 0.00000000000000000000e+00) (0, 0, 0.00000000000000000000e+00) (0, 0, 0.00000000000000000000e+00) (0, 0, 0.00000000000000000000e+00) (0, 0, 0.00000000000000000000e+00) (0, 0, 0.00000000000000000000e+00) (0, 0, 0.00000000000000000000e+00) (0, 0, 0.00000000000000000000e+00) (0, 0, 0.00000000000000000000e+00) (0, 0, 0.00000000000000000000e+00) (0, 0, 0.00000000000000000000e+00) (0, 0, 0.00000000000000000000e+00) (0, 0, 0.00000000000000000000e+00) (0, 0, 0.00000000000000000000e+00) (0, 0, 0.00000000000000000000e+00) (0, 0, 0.00000000000000000000e+00) (0, 0, 0.00000000000000000000e+00) (0, 0, 0.00000000000000000000e+00) (0, 0, 0.00000000000000000000e+00) (0, 0, 0.00000000000000000000e+00) (0, 0, 0.00000000000000000000e+00) (0, 0, 0.00000000000000000000e+00) (0, 0, 0.00000000000000000000e+00) (0, 0, 0.00000000000000000000e+00) (0, 0, 0.00000000000000000000e+00) (0, 0, 0.00000000000000000000e+00) (0, 0, 0.00000000000000000000e+00) (0, 0, 0.00000000000000000000e+00) (0, 0, 0.00000000000000000000e+00) (0, 0, 0.00000000000000000000e+00) (0, 0, 0.00000000000000000000e+00) (0, 0, 0.00000000000000000000e+00) (0, 0, 0.00000000000000000000e+00) (0, 0, 0.00000000000000000000e+00) (0, 0, 0.00000000000000000000e+00) (0, 0, 0.00000000000000000000e+00) (0, 0, 0.00000000000000000000e+00) (0, 0, 0.00000000000000000000e+00) (0, 0, 0.00000000000000000000e+00) (0, 0, 0.00000000000000000000e+00) (0, 0, 0.00000000000000000000e+00) (0, 0, 0.00000000000000000000e+00) (0, 0, 0.00000000000000000000e+00) (0, 0, 0.00000000000000000000e+00) (0, 0, 0.00000000000000000000e+00) (0, 0, 0.00000000000000000000e+00) (0, 0, 0.00000000000000000000e+00) (0, 0, 0.00000000000000000000e+00) (0, 0, 0.00000000000000000000e+00) (0, 0, 0.00000000000000000000e+00) (0, 0, 0.00000000000000000000e+00) (0, 0, 0.00000000000000000000e+00) (0, 0, 0.00000000000000000000e+00) (0, 0, 0.00000000000000000000e+00) (0, 0, 0.00000000000000000000e+00) (0, 0, 0.00000000000000000000e+00) (0, 0, 0.00000000000000000000e+00) (0, 0, 0.00000000000000000000e+00) (0, 0, 0.00000000000000000000e+00) (0, 0, 0.00000000000000000000e+00) (0, 0, 0.00000000000000000000e+00) (0, 0, 0.00000000000000000000e+00) (0, 0, 0.00000000000000000000e+00) (0, 0, 0.00000000000000000000e+00) (0, 0, 0.00000000000000000000e+00) (0, 0, 0.00000000000000000000e+00) (0, 0, 0.00000000000000000000e+00) (0, 0, 0.00000000000000000000e+00) (0, 0, 0.00000000000000000000e+00) (0, 0, 0.00000000000000000000e+00) (0, 0, 0.00000000000000000000e+00) (0, 0, 0.00000000000000000000e+00) (0, 0, 0.00000000000000000000e+00) (0, 0, 0.00000000000000000000e+00) (0, 0, 0.00000000000000000000e+00) (0, 0, 0.00000000000000000000e+00) (0, 0, 0.00000000000000000000e+00) (0, 0, 0.00000000000000000000e+00) (0, 0, 0.00000000000000000000e+00) (0, 0, 0.00000000000000000000e+00) (0, 0, 0.00000000000000000000e+00) (0, 0, 0.00000000000000000000e+00) (0, 0, 0.00000000000000000000e+00) (0, 0, 0.00000000000000000000e+00) (0, 0, 0.00000000000000000000e+00) (0, 0, 0.00000000000000000000e+00) (0, 0, 0.00000000000000000000e+00) (0, 0, 0.00000000000000000000e+00) (0, 0, 0.00000000000000000000e+00) (0, 0, 0.00000000000000000000e+00) (0, 0, 0.00000000000000000000e+00) (0, 0, 0.00000000000000000000e+00) (0, 0, 0.00000000000000000000e+00) (0, 0, 0.00000000000000000000e+00) (0, 0, 0.00000000000000000000e+00) (0, 0, 0.00000000000000000000e+00) (0, 0, 0.00000000000000000000e+00) (0, 0, 0.00000000000000000000e+00) (0, 0, 0.00000000000000000000e+00) (0, 0, 0.00000000000000000000e+00) (0, 0, 0.00000000000000000000e+00) (0, 0, 0.00000000000000000000e+00) (0, 0, 0.00000000000000000000e+00) (0, 0, 0.00000000000000000000e+00) (0, 0, 0.00000000000000000000e+00) (0, 0, 0.00000000000000000000e+00) (0, 0, 0.00000000000000000000e+00) (0, 0, 0.00000000000000000000e+00) (0, 0, 0.00000000000000000000e+00) (257, 5, 5.00000000000000000000e-01) (257, 5, 5.00000000000000000000e-01) (257, 5, 5.00000000000000000000e-01) (0, 5, 0.00000000000000000000e+00) (4, 5, 5.00000000000000000000e-01) (4, 5, 5.00000000000000000000e-01) (4, 5, 5.00000000000000000000e-01) (0, 5, 0.00000000000000000000e+00) 
connections (connected_to_neuron, weight)=(0, 1.52110904455184936523e-01) (1, 1.79363742470741271973e-01) (2, 3.74468713998794555664e-01) (3, 2.82735079526901245117e-01) (4, 1.11821860074996948242e-01) (5, -6.00239112973213195801e-02) (6, -2.53789395093917846680e-01) (7, -2.35839467495679855347e-02) (8, -7.45896771550178527832e-02) (9, -3.35976392030715942383e-01) (10, 8.52673780173063278198e-03) (11, -2.86842249333858489990e-02) (12, 3.58011633157730102539e-01) (13, 3.19658607244491577148e-01) (14, 2.55325645208358764648e-01) (15, -1.10962206963449716568e-03) (16, 2.28320598602294921875e-01) (17, 1.69419765472412109375e-01) (18, 9.57161635160446166992e-02) (19, -3.13315600156784057617e-01) (20, -3.35863113403320312500e-01) (21, -2.18550324440002441406e-01) (22, -1.93892195820808410645e-01) (23, -2.50931710004806518555e-01) (24, -3.49533945322036743164e-01) (25, -3.29852521419525146484e-01) (26, -2.66762793064117431641e-01) (27, -2.84063935279846191406e-01) (28, -2.36992686986923217773e-01) (29, -1.75435803830623626709e-02) (30, 1.85868978500366210938e-01) (31, 3.56754839420318603516e-01) (32, 4.43991184234619140625e-01) (33, 1.67116839438676834106e-02) (34, -2.18972493894398212433e-03) (35, -3.19692105054855346680e-01) (36, -2.65927553176879882812e-01) (37, -3.27924817800521850586e-01) (38, -1.96295112371444702148e-01) (39, -2.63523072004318237305e-01) (40, -3.15529525279998779297e-01) (41, -2.53268182277679443359e-01) (42, -2.09440171718597412109e-01) (43, -2.41359934210777282715e-01) (44, -4.76976424455642700195e-01) (45, -1.05661883950233459473e-01) (46, 5.62470369040966033936e-02) (47, 2.94964879751205444336e-01) (48, 3.17636698484420776367e-01) (49, 8.55575501918792724609e-02) (50, -2.14703902602195739746e-01) (51, -1.96370586752891540527e-01) (52, 2.44177103042602539062e-01) (53, 2.82234758138656616211e-01) (54, 3.97969394922256469727e-01) (55, 2.77951300144195556641e-01) (56, 4.27628070116043090820e-01) (57, 3.38689506053924560547e-01) (58, 5.45449890196323394775e-02) (59, -1.34154364466667175293e-01) (60, -2.11109995841979980469e-01) (61, -3.97087872028350830078e-01) (62, 7.32601284980773925781e-02) (63, 2.33982622623443603516e-01) (64, 1.79395124316215515137e-01) (65, -3.33324931561946868896e-02) (66, -5.80746792256832122803e-02) (67, 2.31247127056121826172e-01) (68, 7.69185721874237060547e-02) (69, 1.57159179449081420898e-01) (70, 2.03495711088180541992e-01) (71, 1.04564398527145385742e-01) (72, 1.05990611016750335693e-01) (73, -3.49927879869937896729e-02) (74, -8.54847207665443420410e-02) (75, -6.21118173003196716309e-02) (76, -1.50493443012237548828e-01) (77, -2.79381990432739257812e-01) (78, -5.28695024549961090088e-02) (79, 2.07169592380523681641e-01) (80, 1.13364458084106445312e-02) (81, -7.37925618886947631836e-02) (82, 1.29560798406600952148e-01) (83, 3.39616179466247558594e-01) (84, 8.83187353610992431641e-02) (85, 1.32363826036453247070e-01) (86, 1.48619040846824645996e-01) (87, 1.42168238759040832520e-01) (88, 2.25167065858840942383e-01) (89, 1.21277935802936553955e-01) (90, -2.11949907243251800537e-02) (91, -8.70327278971672058105e-02) (92, 1.64188906550407409668e-01) (93, -2.80244499444961547852e-01) (94, -7.88543149828910827637e-02) (95, 3.53765226900577545166e-02) (96, 1.34934008121490478516e-01) (97, 1.31191283464431762695e-01) (98, 2.26216912269592285156e-01) (99, 5.33967316150665283203e-01) (100, 1.28795742988586425781e-01) (101, 1.92837476730346679688e-01) (102, 1.48756980895996093750e-01) (103, 8.14406871795654296875e-02) (104, 2.02409759163856506348e-01) (105, 2.92225182056427001953e-02) (106, -3.67673225700855255127e-02) (107, -1.21255360543727874756e-01) (108, 3.64912539720535278320e-01) (109, -7.69601613283157348633e-02) (110, -3.45965623855590820312e-01) (111, 3.31603884696960449219e-02) (112, 1.89828738570213317871e-01) (113, 9.40478295087814331055e-02) (114, -3.69493514299392700195e-02) (115, 3.08038651943206787109e-01) (116, 7.70384147763252258301e-02) (117, 1.51327311992645263672e-01) (118, 1.79227367043495178223e-01) (119, 1.38592734932899475098e-01) (120, 1.05879828333854675293e-01) (121, 8.30856561660766601562e-02) (122, 1.63605764508247375488e-01) (123, -1.29183277487754821777e-01) (124, 1.80261641740798950195e-01) (125, -1.97698518633842468262e-01) (126, -2.25745901465415954590e-01) (127, -2.33215689659118652344e-02) (128, 7.09794536232948303223e-02) (129, 1.23803071677684783936e-01) (130, -3.76487225294113159180e-02) (131, 3.18267703056335449219e-01) (132, 1.71535387635231018066e-01) (133, 1.89448952674865722656e-01) (134, 8.91230702400207519531e-02) (135, -3.21571039967238903046e-03) (136, 6.86410740017890930176e-02) (137, -9.36816912144422531128e-03) (138, 1.66229810565710067749e-02) (139, -2.40071453154087066650e-02) (140, 1.22551053762435913086e-01) (141, -8.23678821325302124023e-02) (142, -2.70679771900177001953e-01) (143, -8.49860608577728271484e-02) (144, 7.24566578865051269531e-02) (145, 1.06142520904541015625e-01) (146, 2.18554526567459106445e-01) (147, 4.28841292858123779297e-01) (148, 8.22501927614212036133e-02) (149, 4.58437316119670867920e-02) (150, 6.07983469963073730469e-02) (151, 5.97287388518452644348e-03) (152, -1.73988547176122665405e-02) (153, -4.99912761151790618896e-02) (154, -1.97361875325441360474e-02) (155, 2.34748329967260360718e-02) (156, 2.26507633924484252930e-01) (157, -5.64233064651489257812e-02) (158, -2.14109793305397033691e-01) (159, -3.04797831922769546509e-02) (160, -3.97062562406063079834e-02) (161, 1.36623486876487731934e-01) (162, 8.20195972919464111328e-02) (163, 3.16409230232238769531e-01) (164, 1.26718670129776000977e-01) (165, 9.55148786306381225586e-03) (166, -1.03238813579082489014e-01) (167, -1.85921676456928253174e-02) (168, 4.36977222561836242676e-02) (169, -5.98333077505230903625e-03) (170, -4.68876920640468597412e-02) (171, -1.15909017622470855713e-01) (172, -1.50895670056343078613e-01) (173, -3.00163656473159790039e-01) (174, -3.97139340639114379883e-01) (175, 3.75795327126979827881e-02) (176, 2.46668368577957153320e-01) (177, 7.99779742956161499023e-02) (178, -1.53805345296859741211e-01) (179, 1.84942215681076049805e-01) (180, 1.27367973327636718750e-01) (181, 9.16064605116844177246e-02) (182, -2.46486756950616836548e-02) (183, -2.85683292895555496216e-02) (184, 1.11476704478263854980e-02) (185, -1.02304056286811828613e-01) (186, -5.63666634261608123779e-02) (187, -7.24069029092788696289e-03) (188, 1.18548788130283355713e-01) (189, -1.96991220116615295410e-01) (190, 7.06308661028742790222e-03) (191, 1.63700297474861145020e-01) (192, 3.84483247995376586914e-01) (193, 4.75974567234516143799e-02) (194, -4.37540382146835327148e-01) (195, -1.92988559603691101074e-01) (196, 8.41408446431159973145e-02) (197, 1.97859480977058410645e-01) (198, 4.27414387464523315430e-01) (199, 1.58745855093002319336e-01) (200, 1.57245565205812454224e-02) (201, 5.40232896804809570312e-01) (202, 8.32488462328910827637e-02) (203, 7.16487988829612731934e-02) (204, -2.31647029519081115723e-01) (205, -3.41796517372131347656e-01) (206, -8.29202309250831604004e-02) (207, 2.21792727708816528320e-01) (208, 1.98286324739456176758e-01) (209, -5.24527132511138916016e-02) (210, -2.84618645906448364258e-01) (211, -2.81921148300170898438e-01) (212, -2.16806039214134216309e-01) (213, -2.15435519814491271973e-01) (214, -3.12048614025115966797e-01) (215, -3.39909821748733520508e-01) (216, -3.11244934797286987305e-01) (217, -2.90564090013504028320e-01) (218, -2.01867669820785522461e-01) (219, -2.12759867310523986816e-01) (220, -3.77139419317245483398e-01) (221, -4.64365512132644653320e-01) (222, 6.21825382113456726074e-02) (223, 9.09767597913742065430e-02) (224, 2.50425666570663452148e-01) (225, -6.79559484124183654785e-02) (226, -4.45930920541286468506e-02) (227, -1.22494988143444061279e-01) (228, -2.58502811193466186523e-01) (229, -2.37367436289787292480e-01) (230, -2.92531728744506835938e-01) (231, -1.27318143844604492188e-01) (232, -1.90811455249786376953e-01) (233, -1.97998359799385070801e-01) (234, -2.18372523784637451172e-01) (235, -1.74223467707633972168e-01) (236, -2.17512145638465881348e-01) (237, -1.19815617799758911133e-01) (238, 1.93226523697376251221e-02) (239, 6.87757283449172973633e-02) (240, 2.18026656657457351685e-02) (241, 3.05506348609924316406e-01) (242, 4.11791056394577026367e-01) (243, 2.70062983036041259766e-01) (244, -1.79376229643821716309e-02) (245, -2.15257719159126281738e-01) (246, -2.64420241117477416992e-01) (247, -9.23796817660331726074e-02) (248, 9.53249335289001464844e-02) (249, -1.81744158267974853516e-01) (250, -2.31814831495285034180e-01) (251, 7.37914443016052246094e-02) (252, 3.68471890687942504883e-01) (253, 3.96228015422821044922e-01) (254, 2.36527860164642333984e-01) (255, 6.21061734855175018311e-02) (256, -2.15275585651397705078e-01) (0, 1.22927397489547729492e-01) (1, 1.34228035807609558105e-01) (2, 2.38320082426071166992e-01) (3, 5.52868306636810302734e-01) (4, 2.32029825448989868164e-01) (5, 2.02762633562088012695e-01) (6, 7.90452286601066589355e-02) (7, -2.25667461752891540527e-01) (8, -1.35756239295005798340e-01) (9, 9.82896909117698669434e-02) (10, 1.57769381999969482422e-01) (11, 1.96591243147850036621e-01) (12, 1.58352747559547424316e-01) (13, 1.95295795798301696777e-01) (14, 5.16060367226600646973e-02) (15, 8.70519503951072692871e-02) (16, 8.33026245236396789551e-02) (17, 2.80217658728361129761e-02) (18, 3.30146588385105133057e-02) (19, 6.57889619469642639160e-02) (20, -8.40019201859831809998e-04) (21, -7.21138045191764831543e-02) (22, -7.42760300636291503906e-02) (23, -2.61634171009063720703e-01) (24, -1.06598712503910064697e-01) (25, -9.04813632369041442871e-02) (26, 4.95702773332595825195e-02) (27, -2.19493694603443145752e-02) (28, 9.91140231490135192871e-02) (29, 7.05929920077323913574e-02) (30, 1.57808363437652587891e-02) (31, 1.80251523852348327637e-01) (32, 2.37042427062988281250e-01) (33, 1.66828215122222900391e-01) (34, -3.47216688096523284912e-02) (35, 1.92928954958915710449e-01) (36, 4.47162240743637084961e-02) (37, 9.69003364443778991699e-02) (38, 9.87721756100654602051e-02) (39, -2.30184420943260192871e-01) (40, -1.94952577352523803711e-01) (41, -1.48730963468551635742e-01) (42, 1.06256894767284393311e-01) (43, 1.83939244598150253296e-02) (44, -7.19383284449577331543e-02) (45, 1.41942530870437622070e-01) (46, 1.77082091569900512695e-01) (47, 1.42852991819381713867e-01) (48, 6.73414617776870727539e-02) (49, 1.90433591604232788086e-01) (50, 9.16618406772613525391e-02) (51, 1.70643270015716552734e-01) (52, 6.64139837026596069336e-02) (53, 1.62334442138671875000e-01) (54, 3.40164988301694393158e-03) (55, 5.99986314773559570312e-02) (56, 1.45028494298458099365e-02) (57, -1.88188716769218444824e-01) (58, -1.01128341630101203918e-02) (59, 4.14439104497432708740e-02) (60, 5.53125515580177307129e-02) (61, -7.41564482450485229492e-02) (62, 1.81088954210281372070e-01) (63, 1.29092216491699218750e-01) (64, 2.34531797468662261963e-02) (65, 8.87328833341598510742e-02) (66, 1.09382547438144683838e-01) (67, 2.07322403788566589355e-01) (68, 1.37339621782302856445e-01) (69, -5.40811568498611450195e-02) (70, -1.15194529294967651367e-01) (71, -9.57981348037719726562e-02) (72, 1.00829608738422393799e-01) (73, 4.61250767111778259277e-02) (74, -1.64829492568969726562e-02) (75, -7.64827132225036621094e-02) (76, 1.86747133731842041016e-01) (77, 6.48531736806035041809e-03) (78, 1.10328257083892822266e-01) (79, 1.62947058677673339844e-01) (80, 6.80217444896697998047e-02) (81, 8.15219525247812271118e-03) (82, 9.35259014368057250977e-02) (83, 1.31272092461585998535e-01) (84, 1.36926457285881042480e-01) (85, 2.69029196351766586304e-02) (86, -2.61937137693166732788e-02) (87, -3.22733707726001739502e-02) (88, 3.44126671552658081055e-02) (89, 1.75696820951998233795e-03) (90, -5.61801344156265258789e-02) (91, 3.88194583356380462646e-02) (92, 3.22812870144844055176e-02) (93, 6.63705393671989440918e-02) (94, 1.54153779149055480957e-02) (95, 1.63306705653667449951e-02) (96, 4.94923889636993408203e-02) (97, 1.30284279584884643555e-01) (98, 1.37702720239758491516e-02) (99, 1.98920786380767822266e-01) (100, -1.17996051907539367676e-01) (101, -1.32329016923904418945e-01) (102, -8.73452275991439819336e-02) (103, -8.32297727465629577637e-02) (104, -8.81625339388847351074e-02) (105, -4.63946908712387084961e-03) (106, -8.57088416814804077148e-02) (107, 5.99738769233226776123e-02) (108, 3.07510085403919219971e-02) (109, 1.74907878041267395020e-01) (110, 1.57146751880645751953e-01) (111, 1.23662315309047698975e-01) (112, 8.14582407474517822266e-02) (113, 2.19224467873573303223e-02) (114, 1.39011433348059654236e-02) (115, 1.82103946805000305176e-01) (116, -1.32038041949272155762e-01) (117, 1.67011972516775131226e-02) (118, 1.14397130906581878662e-01) (119, -7.12677882984280586243e-03) (120, 8.81014205515384674072e-03) (121, 8.39922800660133361816e-02) (122, -1.00105516612529754639e-01) (123, -3.26745845377445220947e-02) (124, 5.15740439295768737793e-02) (125, 4.40290793776512145996e-02) (126, 1.47349581122398376465e-01) (127, 1.74521833658218383789e-01) (128, 6.34277835488319396973e-02) (129, 1.65539965033531188965e-01) (130, 8.50671678781509399414e-02) (131, 3.95331904292106628418e-02) (132, 4.69577573239803314209e-02) (133, 1.14869095385074615479e-01) (134, -3.34412194788455963135e-02) (135, 1.05608277022838592529e-01) (136, -4.05020564794540405273e-02) (137, 2.82095540314912796021e-02) (138, 3.69837284088134765625e-02) (139, -4.25985977053642272949e-02) (140, -1.31321623921394348145e-02) (141, 8.94506052136421203613e-02) (142, -3.11381765641272068024e-03) (143, 2.11840584874153137207e-01) (144, 1.66644051671028137207e-01) (145, 4.00268621742725372314e-02) (146, 1.74134105443954467773e-01) (147, 7.60831534862518310547e-02) (148, 8.41670259833335876465e-02) (149, -6.84821531176567077637e-02) (150, -4.50598448514938354492e-02) (151, -2.43844389915466308594e-02) (152, -2.58823893964290618896e-02) (153, -6.21043238788843154907e-03) (154, 4.59969341754913330078e-02) (155, 2.90542766451835632324e-02) (156, 6.50541782379150390625e-02) (157, 3.19029041565954685211e-03) (158, 4.63052876293659210205e-02) (159, 2.75944378226995468140e-02) (160, 7.68162682652473449707e-02) (161, 1.40104249119758605957e-01) (162, -5.49935288727283477783e-02) (163, -2.63385493308305740356e-02) (164, -2.83250994980335235596e-02) (165, 2.07665488123893737793e-02) (166, -5.12460954487323760986e-02) (167, 1.30000486969947814941e-02) (168, -4.87621221691370010376e-03) (169, -7.19815045595169067383e-02) (170, -1.16904869675636291504e-01) (171, -7.24510028958320617676e-02) (172, 7.68243223428726196289e-02) (173, -1.13434523344039916992e-01) (174, -9.54712741076946258545e-03) (175, 1.27939015626907348633e-01) (176, 5.32663539052009582520e-02) (177, -1.77891165018081665039e-01) (178, -2.99420524388551712036e-02) (179, -7.41602182388305664062e-02) (180, 6.92656189203262329102e-02) (181, -9.27401632070541381836e-02) (182, -1.39178996905684471130e-02) (183, 2.43170484900474548340e-02) (184, -1.80377578362822532654e-03) (185, -2.63632889837026596069e-02) (186, -3.65338698029518127441e-02) (187, -8.50120093673467636108e-03) (188, -7.75646716356277465820e-02) (189, -1.73576548695564270020e-02) (190, 9.60734039545059204102e-02) (191, 1.28395587205886840820e-01) (192, 1.55630230903625488281e-01) (193, -1.02013461291790008545e-01) (194, -2.69118189811706542969e-01) (195, 1.03511251509189605713e-01) (196, -7.87615180015563964844e-02) (197, 3.48544120788574218750e-02) (198, 4.83933724462985992432e-02) (199, 1.37003939598798751831e-02) (200, 6.75662010908126831055e-02) (201, 7.16683343052864074707e-02) (202, 1.08749173581600189209e-01) (203, 9.14391055703163146973e-02) (204, 9.29709821939468383789e-02) (205, -2.87513494491577148438e-01) (206, -1.80776380002498626709e-02) (207, 5.53122870624065399170e-02) (208, -8.19658339023590087891e-02) (209, -3.09937953948974609375e-01) (210, -2.08188131451606750488e-01) (211, -1.44381150603294372559e-02) (212, -1.12844541668891906738e-01) (213, -2.12840080261230468750e-01) (214, -1.66609138250350952148e-01) (215, -2.57282167673110961914e-01) (216, -1.45464345812797546387e-01) (217, -6.71985149383544921875e-02) (218, -6.44606351852416992188e-02) (219, -4.99348901212215423584e-02) (220, -1.28840088844299316406e-01) (221, -2.08200842142105102539e-01) (222, -1.84825643897056579590e-01) (223, -8.65263193845748901367e-02) (224, -1.46621719002723693848e-01) (225, -2.43790671229362487793e-01) (226, -2.37955063581466674805e-01) (227, -8.51551294326782226562e-02) (228, -1.93093448877334594727e-01) (229, -8.61796364188194274902e-02) (230, -1.21647559106349945068e-01) (231, -2.16868311166763305664e-01) (232, -1.25876203179359436035e-01) (233, -1.41544491052627563477e-01) (234, -3.50415296852588653564e-02) (235, -1.67069748044013977051e-01) (236, -1.67307049036026000977e-01) (237, -1.55060365796089172363e-01) (238, -2.13814690709114074707e-01) (239, -1.70880243182182312012e-01) (240, -1.89180731773376464844e-01) (241, -2.26573348045349121094e-01) (242, -2.02285051345825195312e-01) (243, -2.89037842303514480591e-02) (244, -4.30668406188488006592e-02) (245, -2.04350262880325317383e-01) (246, -2.19070166349411010742e-01) (247, -2.76434849947690963745e-02) (248, -2.11795210838317871094e-01) (249, 6.59622028470039367676e-02) (250, -1.17560923099517822266e-01) (251, -1.31020069122314453125e-01) (252, -1.10840015113353729248e-01) (253, -1.83967500925064086914e-01) (254, -2.03643158078193664551e-01) (255, -3.05266350507736206055e-01) (256, -3.56721617281436920166e-02) (0, 3.80393862724304199219e-01) (1, 1.65485829114913940430e-01) (2, 3.43239426612854003906e-01) (3, -1.13549619913101196289e-01) (4, -2.42196246981620788574e-01) (5, -3.67350161075592041016e-01) (6, -2.71919041872024536133e-01) (7, -1.05133987963199615479e-01) (8, -2.52759933471679687500e-01) (9, -2.15667873620986938477e-01) (10, -3.00491094589233398438e-01) (11, -2.28245764970779418945e-01) (12, -1.88249289989471435547e-01) (13, 3.17930191755294799805e-01) (14, 2.66072541475296020508e-01) (15, 3.44661206007003784180e-01) (16, 3.19888830184936523438e-01) (17, 2.10565492510795593262e-01) (18, 3.01364839076995849609e-01) (19, -2.13802099227905273438e-01) (20, -1.08609460294246673584e-01) (21, -1.16048455238342285156e-01) (22, -2.04582840204238891602e-01) (23, -6.22154176235198974609e-02) (24, -1.17170549929141998291e-01) (25, -1.18269011378288269043e-01) (26, -1.73004284501075744629e-01) (27, -1.50616914033889770508e-01) (28, -1.84605464339256286621e-01) (29, -1.56122565269470214844e-01) (30, 2.02846840023994445801e-01) (31, 1.98025971651077270508e-01) (32, 2.93008565902709960938e-01) (33, 4.58803102374076843262e-02) (34, -4.92238938808441162109e-01) (35, -5.93793928623199462891e-01) (36, -1.75991833209991455078e-01) (37, 1.51908034458756446838e-02) (38, 1.53186209499835968018e-02) (39, -2.10139423608779907227e-01) (40, -1.20131254196166992188e-01) (41, -1.39924064278602600098e-01) (42, -1.15920100361108779907e-02) (43, -1.59871578216552734375e-01) (44, -4.45877015590667724609e-02) (45, -2.09525674581527709961e-01) (46, 3.06553393602371215820e-01) (47, 3.01865994930267333984e-01) (48, 3.44775497913360595703e-01) (49, 9.94671285152435302734e-02) (50, -4.52332168817520141602e-01) (51, -3.51073384284973144531e-01) (52, -4.07016247510910034180e-01) (53, -3.13052326440811157227e-01) (54, 3.02325606346130371094e-01) (55, 2.24495455622673034668e-01) (56, 2.90286898612976074219e-01) (57, 5.55263042449951171875e-01) (58, -3.46310064196586608887e-02) (59, -8.46497789025306701660e-02) (60, -7.45077058672904968262e-02) (61, -9.56682711839675903320e-02) (62, 2.70139425992965698242e-01) (63, 2.09430471062660217285e-01) (64, 2.64604896306991577148e-01) (65, -6.56094491481781005859e-01) (66, -5.60620069503784179688e-01) (67, -4.37946319580078125000e-01) (68, 1.86666380614042282104e-02) (69, 5.30012026429176330566e-02) (70, 2.22435548901557922363e-01) (71, 2.43054166436195373535e-01) (72, 5.73497116565704345703e-02) (73, 1.32213920354843139648e-01) (74, 4.27174121141433715820e-01) (75, -1.23326316475868225098e-01) (76, -9.16167199611663818359e-02) (77, -5.34221976995468139648e-02) (78, -1.96784511208534240723e-01) (79, 1.36491969227790832520e-01) (80, 1.25514909625053405762e-01) (81, -7.49204337596893310547e-01) (82, -4.51087862253189086914e-01) (83, 2.28942513465881347656e-01) (84, 2.72142863832414150238e-03) (85, 1.54741272330284118652e-01) (86, 2.02295526862144470215e-01) (87, 1.83310940861701965332e-01) (88, 9.49329063296318054199e-02) (89, -7.88661912083625793457e-02) (90, 3.68717998266220092773e-01) (91, -5.45589365065097808838e-02) (92, -2.55634970963001251221e-02) (93, -1.24949991703033447266e-01) (94, -1.46218374371528625488e-01) (95, 1.37110963463783264160e-01) (96, 2.20917105674743652344e-01) (97, -3.40235382318496704102e-01) (98, 1.51826679706573486328e-01) (99, 2.39564642310142517090e-01) (100, 6.11094310879707336426e-02) (101, -4.22039777040481567383e-02) (102, 7.36221745610237121582e-02) (103, 1.47886089980602264404e-02) (104, -3.18594537675380706787e-02) (105, 4.39932271838188171387e-02) (106, 3.40878635644912719727e-01) (107, 3.85223865509033203125e-01) (108, 4.16246145963668823242e-01) (109, -1.81377738714218139648e-01) (110, -9.22085940837860107422e-02) (111, -1.13679647445678710938e-01) (112, -2.02271670103073120117e-01) (113, -7.54346191883087158203e-01) (114, 7.75904655456542968750e-02) (115, 2.63261608779430389404e-02) (116, -5.93901518732309341431e-03) (117, -2.94769946485757827759e-02) (118, 1.42296463251113891602e-01) (119, -3.41553357429802417755e-03) (120, -2.58104614913463592529e-02) (121, 1.23830385506153106689e-01) (122, 3.21379661560058593750e-01) (123, 3.98050010204315185547e-01) (124, 2.21001476049423217773e-01) (125, -1.25011473894119262695e-01) (126, -2.04394191503524780273e-01) (127, -2.82496698200702667236e-02) (128, -7.36200138926506042480e-02) (129, -8.59530806541442871094e-01) (130, 8.67371484637260437012e-02) (131, -1.36585747823119163513e-02) (132, 3.76647338271141052246e-02) (133, -1.99934770353138446808e-03) (134, 2.54804134368896484375e-01) (135, 2.01908722519874572754e-01) (136, 3.38392198085784912109e-01) (137, 2.64030516147613525391e-01) (138, 3.09516757726669311523e-01) (139, 2.68049359321594238281e-01) (140, 4.36642974615097045898e-01) (141, -7.51211196184158325195e-02) (142, -8.74855220317840576172e-02) (143, -9.42860320210456848145e-02) (144, -1.59690529108047485352e-01) (145, -6.87002122402191162109e-01) (146, 1.63212433457374572754e-01) (147, 1.71543926000595092773e-01) (148, 1.16720221936702728271e-01) (149, 1.66101649403572082520e-01) (150, -1.01093634963035583496e-01) (151, -1.16144061088562011719e-01) (152, -1.37341499328613281250e-01) (153, -4.95113991200923919678e-02) (154, 2.38265737891197204590e-01) (155, 3.98913502693176269531e-01) (156, 5.13232946395874023438e-01) (157, -2.14822143316268920898e-01) (158, -1.43190681934356689453e-01) (159, -1.64829820394515991211e-01) (160, 2.11126789450645446777e-01) (161, -7.74686634540557861328e-01) (162, 1.26290887594223022461e-01) (163, 1.98989555239677429199e-01) (164, 8.37944969534873962402e-02) (165, -2.39905826747417449951e-02) (166, 1.43784731626510620117e-01) (167, 2.50478327274322509766e-01) (168, -4.11103181540966033936e-02) (169, -1.99084773659706115723e-01) (170, -5.31811788678169250488e-02) (171, 2.79651343822479248047e-01) (172, -1.43667519092559814453e-01) (173, -3.07960119098424911499e-02) (174, -2.53077417612075805664e-01) (175, 2.00476348400115966797e-01) (176, 1.80976346135139465332e-01) (177, -2.85655349493026733398e-01) (178, -3.52959930896759033203e-01) (179, -5.29670529067516326904e-02) (180, -8.06494653224945068359e-02) (181, -1.00635839626193046570e-02) (182, 1.76549419760704040527e-01) (183, 1.19967624545097351074e-01) (184, 5.44729232788085937500e-02) (185, -6.84440970420837402344e-01) (186, 9.65708345174789428711e-02) (187, -1.82787738740444183350e-02) (188, -1.93168759346008300781e-01) (189, -1.70251756906509399414e-01) (190, -9.54596996307373046875e-02) (191, 1.86925202608108520508e-01) (192, 2.03529193997383117676e-01) (193, 2.86262780427932739258e-01) (194, -3.37616652250289916992e-01) (195, -3.10847312211990356445e-01) (196, 2.16510504484176635742e-01) (197, 3.23555946350097656250e-01) (198, 3.82229298353195190430e-01) (199, 8.70517343282699584961e-02) (200, 1.40288174152374267578e-01) (201, 4.51104491949081420898e-02) (202, -4.75982241332530975342e-02) (203, -2.56389379501342773438e-01) (204, -2.14694455265998840332e-01) (205, -7.20433965325355529785e-02) (206, 3.43752801418304443359e-01) (207, 3.58788788318634033203e-01) (208, 3.51370692253112792969e-01) (209, 2.21960082650184631348e-01) (210, -1.34310752153396606445e-01) (211, -1.34251177310943603516e-01) (212, -1.55843734741210937500e-01) (213, -8.32954943180084228516e-02) (214, -1.15263134241104125977e-01) (215, -1.78231410682201385498e-02) (216, -1.75046950578689575195e-01) (217, -1.04956246912479400635e-01) (218, -1.97813734412193298340e-01) (219, -1.29261910915374755859e-01) (220, -1.19091503322124481201e-01) (221, 2.48811021447181701660e-02) (222, 1.98385834693908691406e-01) (223, 3.67711067199707031250e-01) (224, 2.35559523105621337891e-01) (225, 2.74625957012176513672e-01) (226, 2.45931819081306457520e-01) (227, -2.89803266525268554688e-01) (228, -2.71056771278381347656e-01) (229, -2.87299007177352905273e-01) (230, -1.25172615051269531250e-01) (231, -1.03352934122085571289e-01) (232, -4.14719842374324798584e-02) (233, -2.22596406936645507812e-01) (234, -2.56286561489105224609e-01) (235, -1.04117430746555328369e-01) (236, -1.63146808743476867676e-01) (237, 1.28075182437896728516e-01) (238, 2.97341316938400268555e-01) (239, 2.69967764616012573242e-01) (240, 2.70628511905670166016e-01) (241, 3.04043322801589965820e-01) (242, 2.46098294854164123535e-01) (243, 1.94430112838745117188e-01) (244, -3.50623220205307006836e-01) (245, -4.40306872129440307617e-01) (246, -5.58365508913993835449e-02) (247, -1.15107111632823944092e-01) (248, -6.19838759303092956543e-02) (249, -7.59940072894096374512e-02) (250, -2.72960215806961059570e-01) (251, 6.65119737386703491211e-02) (252, 2.56962329149246215820e-01) (253, 1.66926831007003784180e-01) (254, 4.08296138048171997070e-01) (255, 2.35416352748870849609e-01) (256, -1.59993767738342285156e-01) (257, 2.63776493072509765625e+00) (258, 7.48372137546539306641e-01) (259, 4.52388334274291992188e+00) (260, 6.99504137039184570312e-01) (257, -5.34632587432861328125e+00) (258, -1.29743993282318115234e-01) (259, 1.09031116962432861328e+00) (260, 4.14466714859008789062e+00) (257, -1.53671395778656005859e+00) (258, 4.98947191238403320312e+00) (259, -8.59699696302413940430e-02) (260, 4.59810078144073486328e-01) 
